{
  "concentrations": [
    0.1,
    0.5,
    1.0,
    5.0,
    10.0
  ],
  "transformed_concentrations": [
    0.1,
    0.5,
    1.0,
    5.0,
    10.0
  ],
  "transform_meta": {},
  "peak_wavelengths": [
    0.24081184555491578,
    0.24143379936806159,
    0.24176020467250922,
    0.23441783896482155,
    0.2281012924838926
  ],
  "selected_model": "linear",
  "slope": -0.0013999343409748844,
  "intercept": 0.24195277822087674,
  "r2": 0.9803095180680652,
  "rmse": 0.0007484289469662739,
  "slope_se": 0.00011454960684765472,
  "slope_ci_low": -0.001764482314058968,
  "slope_ci_high": -0.0010353863678908008,
  "lod": 1.6038515344478599,
  "loq": 5.346171781492866,
  "roi_center": 0.24081184555491578,
  "linear_model": {
    "model": "linear",
    "x_transform": "linear",
    "slope": -0.0013999343409748844,
    "intercept": 0.24195277822087674,
    "r2": 0.9803095180680652,
    "rmse": 0.0007484289469662739,
    "slope_se": 0.00011454960684765472,
    "slope_ci_low": -0.001764482314058968,
    "slope_ci_high": -0.0010353863678908008,
    "predictions": [
      0.24181278478677926,
      0.2412528110503893,
      0.24055284387990186,
      0.23495310651600232,
      0.2279534348111279
    ],
    "r2_cv": 0.9548961094860495,
    "rmse_cv": 0.0011327378319387084
  },
  "polynomial_model": null,
  "robust_model": {
    "model": "robust_huber",
    "slope": -0.0013874633321097273,
    "intercept": 0.24181956118569392,
    "r2": 0.9799353995718977,
    "rmse": 0.0007555055537524664,
    "epsilon": 1.35,
    "alpha": 0.0001,
    "predictions": [
      0.24168081485248294,
      0.24112582951963907,
      0.2404320978535842,
      0.23488224452514528,
      0.22794492786459664
    ],
    "r2_cv": 0.9276004406829471,
    "rmse_cv": 0.001435127097924962
  },
  "bootstrap": null,
  "feature_candidates": [
    {
      "type": "centroid",
      "r2": 0.12387814018344319,
      "slope": 0.07456779976541493,
      "intercept": 866.0679657292486
    },
    {
      "type": "xcorr",
      "r2": 0.0,
      "slope": 0.0,
      "intercept": 865.5401309279657
    },
    {
      "type": "gaussian",
      "r2": 0.1492946179591971,
      "slope": 0.06220838122249126,
      "intercept": 866.1840015057516
    },
    {
      "type": "intensity_best",
      "r2": 0.9803095180680652,
      "slope": -0.0013999343409748844,
      "intercept": 0.24195277822087674
    },
    {
      "type": "peak",
      "r2": 0.0,
      "slope": 0.0,
      "intercept": 507.24276779
    },
    {
      "type": "peak",
      "r2": 0.0,
      "slope": 0.0,
      "intercept": 532.01152163
    },
    {
      "type": "peak",
      "r2": 0.0,
      "slope": 0.0,
      "intercept": 566.04333493
    },
    {
      "type": "peak",
      "r2": 0.0,
      "slope": 0.0,
      "intercept": 582.023681
    }
  ],
  "plsr_model": {
    "model": "plsr",
    "n_components": 3,
    "wavelengths": [
      506.12076366,
      518.70640222,
      518.93152743,
      519.6069831,
      519.83216165,
      520.28255873,
      520.50777726,
      521.18351273,
      521.40878452,
      521.85936801,
      522.08467971,
      522.31000471,
      522.76069459,
      523.21143764,
      523.4368291,
      523.66223383,
      523.88765185,
      524.11308315,
      524.33852772,
      524.78945667,
      525.01494104,
      525.91701116,
      526.14256182,
      526.81929331,
      527.04489696,
      527.72178732,
      527.9474439,
      528.17311372,
      528.39879675,
      528.85020249,
      530.43053874,
      534.94934507,
      535.17542356,
      535.40151518,
      555.57595324,
      556.48508154,
      556.71239582,
      556.93972297,
      557.167063,
      557.39441589,
      557.62178165,
      557.84916028,
      558.07655177,
      558.30395611,
      558.53137331,
      558.75880337,
      558.98624627,
      559.21370202,
      559.44117062,
      559.66865206,
      559.89614634,
      560.12365345,
      560.3511734,
      560.57870618,
      560.80625179,
      561.03381022,
      561.26138148,
      561.48896555,
      561.71656244,
      561.94417215,
      562.17179467,
      562.39942999,
      562.62707812,
      562.85473906,
      563.08241279,
      563.31009933,
      563.53779866,
      563.76551078,
      563.99323568,
      564.22097338,
      564.44872386,
      564.67648712,
      564.90426316,
      565.13205197,
      565.35985356,
      565.58766792,
      565.81549504,
      566.04333493,
      566.27118758,
      566.49905298,
      566.72693115,
      566.95482207,
      567.18272573,
      567.41064215,
      567.63857131,
      567.86651321,
      568.09446785,
      568.32243523,
      592.10004934,
      592.32933863,
      592.55864036,
      592.78795453,
      593.01728114,
      593.47597165,
      593.70533555,
      593.93471188,
      594.16410063,
      594.3935018,
      594.62291539,
      595.08177981,
      595.54069387,
      595.77016951,
      596.91773365,
      598.52484363,
      604.72936474,
      612.3248328,
      616.24284156,
      616.47342218,
      616.70401496,
      616.93461988,
      617.16523695,
      617.62650752,
      617.85716101,
      618.08782664,
      618.3185044,
      618.54919429,
      618.7798963,
      619.01061044,
      619.2413367,
      619.47207508,
      619.70282557,
      619.93358818,
      620.16436289,
      620.39514972,
      621.0875828,
      621.31841802,
      621.54926534,
      621.78012475,
      622.01099624,
      622.24187982,
      622.47277549,
      622.70368323,
      623.16553494,
      623.3964789,
      623.62743493,
      623.85840303,
      624.08938319,
      624.32037541,
      624.55137968,
      636.34852069,
      636.58014812,
      636.81178746,
      637.04343871,
      637.27510187,
      637.50677692,
      637.73846387,
      637.97016272,
      638.20187347,
      638.4335961,
      638.66533062,
      638.89707703,
      639.12883532,
      639.36060549,
      639.59238754,
      639.82418146,
      640.05598725,
      640.28780491,
      640.51963444,
      640.75147583,
      640.98332908,
      641.21519419,
      641.44707115,
      641.67895997,
      641.91086063,
      642.14277314,
      642.3746975,
      642.83858172,
      643.07054159,
      646.55135798,
      649.8025137,
      650.03482734,
      650.26715273,
      650.49948987,
      650.73183875,
      650.96419937,
      651.19657173,
      651.42895582,
      651.66135165,
      651.89375921,
      652.3586095,
      652.59105224,
      652.82350669,
      653.05597285,
      653.28845073,
      653.52094032,
      653.75344162,
      653.98595462,
      654.21847933,
      654.45101573,
      654.68356383,
      654.91612363,
      655.14869511,
      655.38127829,
      655.61387315,
      655.84647969,
      656.07909792,
      656.31172782,
      656.54436939,
      656.77702264,
      657.00968756,
      657.24236414,
      657.47505238,
      657.70775229,
      657.94046385,
      658.17318707,
      658.40592195,
      658.63866847,
      658.87142663,
      659.10419645,
      659.3369779,
      659.56977099,
      659.80257572,
      660.03539208,
      660.26822007,
      660.50105969,
      660.73391093,
      660.9667738,
      661.19964828,
      661.43253438,
      661.66543209,
      661.89834142,
      662.13126235,
      662.36419489,
      662.59713903,
      662.83009477,
      663.0630621,
      663.29604103,
      663.52903155,
      663.76203367,
      663.99504736,
      664.22807264,
      664.4611095,
      664.69415794,
      664.92721795,
      665.16028953,
      665.39337269,
      665.6264674,
      665.85957369,
      666.09269153,
      666.32582093,
      666.55896189,
      666.7921144,
      667.02527846,
      667.25845406,
      667.49164121,
      667.72483991,
      667.95805014,
      668.1912719,
      668.4245052,
      668.65775003,
      668.89100639,
      669.12427427,
      669.35755368,
      669.5908446,
      669.82414704,
      670.05746099,
      670.29078646,
      670.52412343,
      670.75747191,
      670.99083189,
      671.22420337,
      671.45758635,
      671.69098082,
      671.92438678,
      672.15780424,
      672.39123317,
      672.6246736,
      672.8581255,
      673.09158888,
      673.32506373,
      674.25907784,
      696.96464072,
      697.19927145,
      697.66856647,
      697.90323075,
      700.2504881,
      700.48527522,
      700.72007349,
      703.5385215,
      704.24338376,
      704.47836007,
      704.71334748,
      704.94834598,
      705.18335559,
      705.41837629,
      705.65340808,
      705.88845096,
      706.12350493,
      706.35856998,
      706.59364612,
      706.82873333,
      707.06383161,
      707.29894097,
      707.53406141,
      707.7691929,
      708.00433546,
      708.23948909,
      708.47465377,
      708.70982951,
      708.9450163,
      709.18021414,
      709.41542303,
      709.65064297,
      709.88587395,
      710.12111597,
      710.35636902,
      710.59163311,
      710.82690823,
      711.06219437,
      711.29749155,
      711.53279974,
      712.0034492,
      712.23879044,
      712.4741427,
      712.70950597,
      712.94488025,
      713.18026553,
      713.41566181,
      713.65106908,
      713.88648736,
      714.12191662,
      714.35735688,
      714.59280812,
      714.82827034,
      715.77022903,
      716.00574614,
      719.30413591,
      725.67135854,
      727.79552708,
      731.57399117,
      734.88241236,
      735.11880884,
      735.35521607,
      735.59163403,
      736.30095234,
      737.95640377,
      738.19293969,
      738.42948632,
      740.55888732,
      741.50556555,
      791.91936269,
      793.35288517
    ],
    "concentrations": [
      0.1,
      0.5,
      1.0,
      5.0,
      10.0
    ],
    "predictions_in": [
      -0.0837331384297677,
      0.6719400617384026,
      1.0850967735653585,
      4.900177407121037,
      10.026518896005003
    ],
    "r2_in": 0.9988582881633568,
    "rmse_in": 0.12746020065376895,
    "predictions_cv": [
      2.3756198055375473,
      1.0280379967281137,
      0.12869714610658312,
      3.35978598822259,
      2.3048080818638206
    ],
    "r2_cv": 0.16934251056152216,
    "rmse_cv": 3.4380116072686207,
    "coef_": [
      -0.6292440601470403,
      -0.7654540123450788,
      -1.126900025202994,
      0.8794227836625108,
      1.4400606243346739,
      -9.900636003119194,
      -3.0177819840347255,
      2.361591303122697,
      1.5909298431932817,
      1.084273111263546,
      1.3000135103760446,
      1.8300555781308465,
      -1.2869542588268945,
      -0.6621074224832816,
      -0.9693580069105697,
      1.018662271160614,
      0.9058045507782632,
      0.6257282732250848,
      0.9965214856242743,
      1.0254927628085533,
      0.9739931394049626,
      -0.8719654445554582,
      -0.7767612861243105,
      -0.7230393328737484,
      -0.8766016170319567,
      -0.6926570116667218,
      -1.3377222339972346,
      0.8376997895095936,
      0.7558121753869663,
      1.0262154823548781,
      -0.524519612066734,
      0.7800527467822781,
      -0.7443223706612406,
      -0.5542146695760222,
      -0.40286847727460956,
      0.44939853211574027,
      -1.1252387027859867,
      -1.1252387027859867,
      -1.1252387027859867,
      -1.1252387027859867,
      -1.1252387027859867,
      -1.1252387027859867,
      -1.1252387027859867,
      -1.1252387027859867,
      -1.1252387027859867,
      -1.1252387027859867,
      -1.1252387027859867,
      -1.1252387027859867,
      -1.1252387027859867,
      -1.1252387027859867,
      -1.1252387027859867,
      -1.1252387027859867,
      -1.1252387027859867,
      -1.1252387027859867,
      -1.1252387027859867,
      -1.1252387027859867,
      -1.1252387027859867,
      -1.1252387027859867,
      -1.1252387027859867,
      -1.1252387027859867,
      -1.1252387027859867,
      -1.1252387027859867,
      -1.1252387027859867,
      -1.1252387027859867,
      -1.1252387027859867,
      -1.1252387027859867,
      -1.1252387027859867,
      -1.1252387027859867,
      -1.1252387027859867,
      -1.1252387027859867,
      -1.1252387027859867,
      -1.1252387027859867,
      -1.1252387027859867,
      -1.1252387027859867,
      -1.1252387027859867,
      -1.1252387027859867,
      -1.1252387027859867,
      -1.1252387027859867,
      -1.1252387027859867,
      -1.1252387027859867,
      -1.1252387027859867,
      -1.1252387027859867,
      5.029337892548267,
      6.405309650921245,
      -7.190174046163141,
      -7.63443381550553,
      -2.1497644566786414,
      3.4545356750507548,
      -0.522854630240455,
      -0.8280086621774904,
      -0.8152662819387364,
      -0.72415443597897,
      -0.6057148986224355,
      -0.8847409991547361,
      2.6662109528403457,
      0.15219285484150527,
      8.437530808150445,
      3.7259086202721154,
      1.5720951702058288,
      -2.4751195887353723,
      -0.6407609413116923,
      1.5588240664825272,
      -0.2334037882726186,
      -1.0987951256952495,
      -1.7916842609031218,
      -0.7661954805853977,
      -1.0470951426696422,
      -1.6577508161235004,
      -2.642078880404057,
      -1.1107697216689623,
      -2.5601706123040047,
      3.469092686742419,
      7.79000457048956,
      4.631376742280136,
      11.352471108334775,
      -5.616154319780827,
      -4.917333436279487,
      -4.154169319077077,
      -3.349463758507188,
      -2.5284688930089407,
      -1.7163173542742767,
      0.7472601699329892,
      1.7835279881832913,
      1.6737364791660643,
      -3.7944154280567193,
      -2.801152003442992,
      -4.3657588477901115,
      -1.381259999312494,
      -0.7141503808668658,
      -1.3214858776740712,
      1.0609573481637162,
      0.5704741181326407,
      0.6062381905023487,
      0.7894332239881744,
      1.1340699591000551,
      1.062549645963372,
      0.5689145884803698,
      -0.7857264492235952,
      -0.9594820142581917,
      -1.57219927499043,
      -0.8904780328307614,
      -0.8282083863342231,
      -0.9705637190237684,
      -2.9519599270932115,
      1.932911543760145,
      2.2236446237105096,
      2.2362475515196425,
      -1.1252387027859867,
      -1.1252387027859867,
      -1.1252387027859867,
      -1.1252387027859867,
      -1.1252387027859867,
      -1.1252387027859867,
      -1.1252387027859867,
      -1.1252387027859867,
      -1.1252387027859867,
      -1.1252387027859867,
      -1.1252387027859867,
      -1.1252387027859867,
      -1.1252387027859867,
      -1.1252387027859867,
      -1.1252387027859867,
      -1.1252387027859867,
      -1.1252387027859867,
      3.415762419174599,
      1.2274814860192567,
      0.6018824690269726,
      1.1444584911357554,
      0.6061532876563429,
      -0.7073359930723824,
      -0.9057636172682532,
      0.7053306242452334,
      -1.879291665604655,
      -0.688398037310611,
      -0.8199413872088015,
      -0.7842893309547011,
      3.038738721748896,
      1.6154846739647317,
      4.902294013595347,
      2.3440828819130375,
      -0.2063218225783983,
      0.24602156513266873,
      -1.1252387027859867,
      -1.1252387027859867,
      -1.1252387027859867,
      -1.1252387027859867,
      -1.1252387027859867,
      -1.1252387027859867,
      -1.1252387027859867,
      -1.1252387027859867,
      -1.1252387027859867,
      -1.1252387027859867,
      -1.1252387027859867,
      -1.1252387027859867,
      -1.1252387027859867,
      -1.4808420762045138,
      -1.2753097023904358,
      -0.8165571177440758,
      -0.8478420208435228,
      -0.8798482799462748,
      -0.9125895900456712,
      -0.9460796537350603,
      -0.9803321416186724,
      -1.015360683566415,
      -1.0511788493975893,
      -1.0878000966900814,
      -1.1252377563350302,
      -1.1635049932059485,
      -1.2026147738776383,
      -1.2425798150232596,
      -1.2834125514196286,
      -1.3251250971747601,
      -1.3677291863640757,
      -1.4112361242542606,
      -1.455656749337943,
      -1.5010013489555556,
      -0.9873927670778867,
      -0.8307961873553821,
      -1.1252387027859867,
      -1.1252387027859867,
      -1.1252387027859867,
      -1.1252387027859867,
      -1.1252387027859867,
      -1.1252387027859867,
      -1.1252387027859867,
      -1.1252387027859867,
      -1.1252387027859867,
      -1.1252387027859867,
      -1.1252387027859867,
      -1.1252387027859867,
      -1.1252387027859867,
      -1.1252387027859867,
      -1.1252387027859867,
      -1.1252387027859867,
      -1.1252387027859867,
      -1.1252387027859867,
      -1.1252387027859867,
      -1.1252387027859867,
      -1.1252387027859867,
      -1.1252387027859867,
      -1.1252387027859867,
      -1.1252387027859867,
      -1.1252387027859867,
      -1.1252387027859867,
      -1.1252387027859867,
      -1.1252387027859867,
      -1.1252387027859867,
      -1.1252387027859867,
      -1.1252387027859867,
      -1.1252387027859867,
      -1.1252387027859867,
      -1.1252387027859867,
      -4.299142367549952,
      -2.4605010565884795,
      1.094769614179439,
      0.9151377124635851,
      0.7197970682401795,
      0.5080920047181999,
      0.2794695636163315,
      0.033512140815556236,
      -0.23002697665059058,
      -0.5111854070743014,
      -0.8097525011978611,
      -1.1252307288355288,
      -1.4567998880526305,
      -1.8032866707178148,
      -2.163143012168323,
      -2.534435466891108,
      -7.5909214804656715,
      -1.5955460805384971,
      -0.8256563891324404,
      -0.4754603666169187,
      -1.0863736238828878,
      0.39867793061136664,
      0.8188264279041808,
      -0.6141007881693772,
      -0.52996874229784,
      -0.5031044580643772,
      0.8459213924776798,
      0.35417605794890755,
      1.478367747663863,
      0.5189955236433494,
      2.749086908228262,
      2.4725706592646186,
      -1.6239348244352596,
      -1.4393048888396847,
      -7.477846912898064,
      -8.019204508559088,
      -1.1252387027859867,
      -1.1252387027859867,
      -1.1252387027859867,
      -1.1252387027859867,
      -1.1252387027859867,
      -1.1252387027859867,
      -1.1252387027859867,
      -1.1252387027859867,
      -1.1252387027859867,
      -1.1252387027859867,
      -1.1252387027859867,
      -1.1252387027859867,
      -1.1252387027859867,
      -1.1252387027859867,
      -1.1252387027859867,
      -1.1252387027859867,
      -1.1252387027859867,
      -1.1252387027859867,
      -1.1252387027859867,
      -1.1252387027859867,
      0.7108493721340108,
      -0.4844580153873339,
      -3.4506892795995974,
      0.39863704299273334,
      3.8933648774162943,
      3.9015233759832535,
      -4.097574715373353,
      -4.230614839985129,
      -4.846231234916991,
      -5.624602137829254,
      -6.594341518390136,
      -7.701247874722043,
      -8.535643318209704,
      -7.741717616207218,
      -6.834378382123553,
      -1.593949996950897,
      -0.9220752021330128,
      -0.4649551597543377,
      0.7322306616689289,
      -0.6873845479726101,
      1.725149801262852,
      0.24140103500177446,
      -1.0164046998725726,
      1.8594585494605753,
      1.8194128426256975,
      -2.376514519587073,
      2.0237046679489326,
      1.6808324193003459,
      1.0762104008744635,
      -1.5587315448181713,
      -1.35649605420851,
      1.9419253445970317,
      0.7201682974900787,
      -0.6178868751936805
    ]
  },
  "uncertainty": {
    "r2_cv": 0.9548961094860495,
    "rmse_cv": 0.0011327378319387084,
    "bootstrap": null
  }
}