{
  "concentrations": [
    0.1,
    0.5,
    1.0,
    5.0,
    10.0
  ],
  "transformed_concentrations": [
    0.1,
    0.5,
    1.0,
    5.0,
    10.0
  ],
  "transform_meta": {},
  "peak_wavelengths": [
    0.1364022633473767,
    0.13493567955268243,
    0.13645619740604234,
    0.14031572790662186,
    0.14394368870600438
  ],
  "selected_model": "linear",
  "slope": 0.0008568333774680709,
  "intercept": 0.13556602457055156,
  "r2": 0.9642163254784876,
  "rmse": 0.0006226556728047949,
  "slope_se": 9.529957761570197e-05,
  "slope_ci_low": 0.0005535475887898293,
  "slope_ci_high": 0.0011601191661463125,
  "lod": 2.18008199439452,
  "loq": 7.266939981315068,
  "roi_center": 0.13645619740604234,
  "linear_model": {
    "model": "linear",
    "x_transform": "linear",
    "slope": 0.0008568333774680709,
    "intercept": 0.13556602457055156,
    "r2": 0.9642163254784876,
    "rmse": 0.0006226556728047949,
    "slope_se": 9.529957761570197e-05,
    "slope_ci_low": 0.0005535475887898293,
    "slope_ci_high": 0.0011601191661463125,
    "predictions": [
      0.13565170790829836,
      0.1359944412592856,
      0.13642285794801962,
      0.1398501914578919,
      0.14413435834523228
    ],
    "r2_cv": 0.9025925030480391,
    "rmse_cv": 0.001027310373365411
  },
  "polynomial_model": null,
  "robust_model": {
    "model": "robust_huber",
    "slope": 0.0008240753970073241,
    "intercept": 0.13584008612620097,
    "r2": 0.9602848904831157,
    "rmse": 0.0006559690726434757,
    "epsilon": 1.35,
    "alpha": 0.0001,
    "predictions": [
      0.1359224936659017,
      0.13625212382470464,
      0.1366641615232083,
      0.13996046311123758,
      0.1440808400962742
    ],
    "r2_cv": 0.8861346994893301,
    "rmse_cv": 0.0011107112738089904
  },
  "bootstrap": null,
  "feature_candidates": [
    {
      "type": "centroid",
      "r2": 0.001352230328151449,
      "slope": -0.001710911067961052,
      "intercept": 865.2011824537508
    },
    {
      "type": "xcorr",
      "r2": 0.0,
      "slope": 0.0,
      "intercept": 865.3154493371688
    },
    {
      "type": "gaussian",
      "r2": 0.025896101603268443,
      "slope": -0.0072861731257942266,
      "intercept": 865.2360856876551
    },
    {
      "type": "intensity_best",
      "r2": 0.9642163254784876,
      "slope": 0.0008568333774680709,
      "intercept": 0.13556602457055156
    },
    {
      "type": "peak",
      "r2": 0.0,
      "slope": 0.0,
      "intercept": 507.69166384
    },
    {
      "type": "peak",
      "r2": 0.0,
      "slope": 0.0,
      "intercept": 531.5597463
    },
    {
      "type": "peak",
      "r2": 0.0,
      "slope": 0.0,
      "intercept": 550.12552038
    },
    {
      "type": "peak",
      "r2": 0.0,
      "slope": 0.0,
      "intercept": 561.94417215
    }
  ],
  "plsr_model": {
    "model": "plsr",
    "n_components": 3,
    "wavelengths": [
      500.96389585,
      502.75677711,
      504.32625901,
      504.5505248,
      506.12076366,
      506.3451375,
      506.56952484,
      506.79392567,
      507.01833999,
      508.1406138,
      509.03867534,
      509.26322439,
      510.38617142,
      511.28477105,
      511.50945454,
      512.1835856,
      512.4083228,
      513.75702768,
      513.98185875,
      514.65643235,
      514.881317,
      515.10621504,
      515.33112647,
      517.35593118,
      517.58097631,
      517.80603479,
      518.03110663,
      518.25619181,
      519.38181787,
      519.6069831,
      519.83216165,
      522.08467971,
      522.31000471,
      524.11308315,
      524.33852772,
      524.56398556,
      530.65635387,
      530.88218219,
      534.27118847,
      534.49722752,
      534.72327973,
      534.94934507,
      535.17542356,
      535.40151518,
      536.30601301,
      536.53217029,
      536.75834069,
      536.9845242,
      537.21072084,
      537.66315345,
      540.37884939,
      540.60524244,
      540.83164856,
      541.05806775,
      545.36251185,
      545.58919184,
      545.81588485,
      546.04259086,
      546.26930988,
      546.49604191,
      548.76407667,
      552.16856025,
      552.39562937,
      552.62271142,
      552.8498064,
      553.07691429,
      554.21264752,
      554.43983289,
      554.66703116,
      555.12146641,
      555.34870338,
      555.57595324,
      555.80321599,
      556.03049162,
      557.62178165,
      558.98624627,
      559.21370202,
      559.44117062,
      560.3511734,
      560.57870618,
      561.03381022,
      563.53779866,
      563.76551078,
      563.99323568,
      570.14663244,
      572.19982667,
      579.50838133,
      579.96559527,
      580.19422113,
      580.42285958,
      580.65151062,
      580.88017424,
      581.10885044,
      581.33753922,
      582.4811717,
      585.45608502,
      589.12042215,
      589.57868919,
      589.80784142,
      591.64150811,
      591.8707725,
      592.10004934,
      592.32933863,
      592.55864036,
      592.78795453,
      593.24662018,
      593.47597165,
      593.70533555,
      593.93471188,
      594.8523414,
      600.82176606,
      602.43034615,
      602.66019261,
      607.02961261,
      609.79152882,
      610.02176808,
      610.25201956,
      612.3248328,
      612.55520642,
      612.78559225,
      613.01599027,
      613.24640048,
      613.47682288,
      614.16816321,
      614.39863434,
      614.62911766,
      614.85961314,
      615.0901208,
      616.93461988,
      617.16523695,
      617.39586617,
      617.62650752,
      617.85716101,
      618.08782664,
      620.62594864,
      623.62743493,
      623.85840303,
      624.08938319,
      631.0243834,
      631.25573613,
      631.71847751,
      631.94986615,
      632.18126676,
      635.19056229,
      635.42213013,
      635.65370989,
      636.34852069,
      636.58014812,
      636.81178746,
      637.04343871,
      637.27510187,
      637.50677692,
      637.73846387,
      639.36060549,
      639.59238754,
      639.82418146,
      640.05598725,
      640.28780491,
      640.51963444,
      640.75147583,
      640.98332908,
      649.10564331,
      649.33792168,
      649.57021181,
      652.59105224,
      655.61387315,
      655.84647969,
      656.07909792,
      656.31172782,
      660.26822007,
      663.76203367,
      664.92721795,
      665.85957369,
      667.25845406,
      667.49164121,
      667.72483991,
      667.95805014,
      668.1912719,
      668.4245052,
      668.65775003,
      668.89100639,
      670.52412343,
      670.75747191,
      670.99083189,
      671.22420337,
      671.45758635,
      671.69098082,
      671.92438678,
      674.02555712,
      674.25907784,
      677.99696627,
      679.8670072,
      689.69665323,
      689.93093571,
      690.16522947,
      690.3995345,
      690.6338508,
      690.86817837,
      691.1025172,
      691.57122865,
      691.80560125,
      692.03998511,
      693.44652444,
      693.68098699,
      693.91546077,
      694.14994579,
      697.19927145,
      697.43391336,
      698.13790622,
      698.37259286,
      698.60729068,
      698.84199967,
      699.07671984,
      701.89423202,
      702.12909714,
      702.36397339,
      703.30358964,
      704.00841857,
      704.24338376,
      705.18335559,
      705.41837629,
      705.65340808,
      706.12350493,
      706.35856998,
      706.59364612,
      706.82873333,
      707.06383161,
      707.29894097,
      707.53406141,
      707.7691929,
      708.00433546,
      708.23948909,
      708.47465377,
      708.70982951,
      708.9450163,
      709.18021414,
      709.41542303,
      709.65064297,
      709.88587395,
      710.12111597,
      710.35636902,
      710.59163311,
      710.82690823,
      711.06219437,
      712.94488025,
      718.12589328,
      721.89723095,
      722.36884456,
      722.6046677,
      722.84050173,
      723.78394671,
      724.01983515,
      724.25573447,
      726.37931713,
      726.61532503,
      729.92057275,
      730.15674299,
      733.93693392,
      735.59163403,
      735.82806273,
      736.06450217,
      736.30095234,
      738.66604365,
      738.90261169,
      739.13919042,
      742.21568624,
      742.45241446,
      748.1370824,
      748.37407621,
      750.5074966,
      750.74459616,
      751.69309997,
      770.93637101,
      771.65039468,
      771.8884232,
      772.12646204,
      772.36451118,
      772.60257064,
      772.84064039,
      773.07872045,
      773.55491147,
      782.13336907,
      782.37184874,
      783.80294069,
      787.62097494,
      787.85968831,
      788.0984118,
      788.33714541,
      788.57588915,
      788.81464301,
      789.05340698,
      789.29218106,
      793.35288517,
      793.59184082,
      795.98195022,
      796.22101638,
      796.46009258,
      796.6991788,
      799.56899462,
      800.04743726,
      800.28667356,
      800.52591985,
      801.00444236,
      801.96160705,
      802.20092314,
      802.44024919,
      802.67958519,
      802.91893116,
      803.15828707,
      803.39765294,
      806.51031335,
      806.74981822,
      806.989333,
      807.22885768,
      807.46839227,
      807.70793675,
      807.94749114,
      811.06259749,
      811.30229015,
      827.62436608,
      827.86473225,
      835.08019881,
      835.32086328,
      844.23215881,
      848.33089561,
      848.57208276,
      849.77815986,
      850.01940353,
      862.57697484,
      867.41350193,
      867.65542516,
      873.70649103,
      873.94865274,
      874.91739089,
      878.06679709,
      878.30912279,
      880.4904626,
      882.43004744,
      889.95138899,
      896.02325692,
      897.4813329,
      897.72437661
    ],
    "concentrations": [
      0.1,
      0.5,
      1.0,
      5.0,
      10.0
    ],
    "predictions_in": [
      0.10926386892019524,
      0.49664449688732226,
      0.9867337592218237,
      5.0119999527659385,
      9.99535792220472
    ],
    "r2_in": 0.9999938351103961,
    "rmse_in": 0.009366104478773259,
    "predictions_cv": [
      1.5245878888822046,
      1.811606573835555,
      3.1598740548136774,
      5.483926045149611,
      3.412417644551655
    ],
    "r2_cv": 0.39033347523162043,
    "rmse_cv": 2.945388052675595,
    "coef_": [
      0.17624055138093653,
      -0.20299650046246598,
      0.966885608411586,
      0.36697916124447455,
      -0.1617792758511419,
      -0.15826368555550785,
      -0.22086024289477882,
      -0.15239004121744343,
      -0.1385336329088018,
      -0.2165661345700518,
      0.04234502398966119,
      0.16471601539121275,
      0.24001121328470623,
      -0.07362426232898875,
      -0.22224623241330385,
      -0.38264762444158623,
      -0.2501411666912411,
      0.06832428146756851,
      0.07522267081262102,
      -0.11374881993469523,
      -0.1412482940948564,
      -0.10884321011574184,
      -0.047133828929820216,
      0.27012208275315347,
      0.08803695817947584,
      0.07443588409048375,
      0.12818691038871938,
      0.05200474847714954,
      -0.4020310028890248,
      -0.38579047380407383,
      -0.009775031415536695,
      0.09847439038122474,
      0.08979377486812376,
      -0.16070622216956632,
      -0.27054330991733777,
      -0.3457836361868824,
      -0.19959976569662263,
      -0.2429658587298065,
      -0.26330441288373074,
      -0.25157553553136597,
      -0.2056233066508193,
      -0.2645484881786789,
      -0.3514990141432655,
      -0.19394613432475655,
      -0.22111476647445022,
      -0.22704775119009032,
      0.027496478248139885,
      0.00202592228781417,
      0.01701684619059359,
      0.2509661112686792,
      -0.1403769488290331,
      -0.14092858162284097,
      -0.1325583918322924,
      -0.1332066292410487,
      0.023725413399563383,
      0.0502136324117489,
      0.01811197952406148,
      0.004902363416823087,
      0.056251030520875,
      0.08868303159790349,
      -0.07941360197614068,
      -0.06542003160010511,
      -0.13152526794933242,
      -0.15323779601522777,
      -0.1660159140761243,
      -0.15179081449619736,
      -0.1286259574029632,
      -0.2143247709014883,
      -0.35586287639234127,
      -0.10798735406480514,
      0.026137043526025007,
      0.28606619028961205,
      0.4505856663922337,
      0.11603279710211777,
      -0.3350905694387513,
      -0.36361104138049055,
      -0.7190532446724359,
      -0.3710110213174435,
      -0.08205854931781668,
      -0.3534086609521537,
      0.23654810440809526,
      0.13366593380250852,
      0.15769001042817388,
      0.1665506850905847,
      0.15370840403757083,
      -0.15309098041850713,
      -0.1547040793223683,
      -0.050849023798570765,
      0.5816631890902001,
      0.315114040113265,
      0.2139440586032586,
      0.36334106632576657,
      0.3222086264628582,
      0.2567469041850063,
      0.09934164452483221,
      -0.2051144512289247,
      0.22744433272232534,
      -0.21955488346465807,
      -0.19762978835725117,
      0.01573406181031002,
      0.19032411488708953,
      0.2314515240464831,
      0.22946115802860795,
      0.1890849821271074,
      -0.06394461714517655,
      -0.3932202558189314,
      -0.3219774298700199,
      -0.20611153351816228,
      -0.14167446724918886,
      -0.1445696610152083,
      0.19356802505154722,
      0.055496094036558974,
      -0.006898118233067383,
      0.10588658080048417,
      -0.2139349149243983,
      -0.26213554611988993,
      0.07363483190383019,
      0.35645008690455254,
      0.19140766194713568,
      0.15594926046793303,
      0.09288040517128213,
      0.10390631185738426,
      0.11689096005781573,
      0.12080280967752863,
      0.12403323527725657,
      0.11117575155051393,
      0.12323465954232381,
      0.05195496435023294,
      0.09137860766664345,
      0.22946114572292992,
      0.3383976259059075,
      0.39158362220460524,
      0.36622841333791745,
      0.3531976583705334,
      -0.24095208878712723,
      0.1489587264323448,
      0.12337588755002538,
      -0.013962372906103769,
      -0.21024149029965564,
      -0.20987258445655105,
      -0.17524543304224116,
      -0.1698991562538588,
      -0.1592999491924582,
      0.23055924501130334,
      0.2284007612891288,
      0.1776080173459428,
      -0.14992356666066184,
      -0.24071021146221724,
      -0.3886561285191559,
      -0.3459790755724146,
      -0.22989071344143996,
      -0.2142985610327676,
      -0.2658745566529373,
      -0.3352000022155656,
      -0.24101429904883503,
      -0.14225652281732243,
      -0.17603677648934807,
      0.04141168138129082,
      0.10678053520675035,
      0.0546499881057625,
      0.021551791349177032,
      -0.09876100879422096,
      -0.10763651551242384,
      -0.05001519523405961,
      0.09941949650437261,
      0.08677106725305354,
      0.1815595223119807,
      0.22973518214627536,
      0.040013642823632546,
      -0.19988793225299448,
      0.201718754065587,
      0.27290946374907415,
      -0.4896441809199804,
      -0.1946342774864107,
      -0.11933397081117438,
      -0.10484644436296413,
      -0.14079589963039918,
      -0.20154493081719527,
      -0.217324336451624,
      -0.1575220627446106,
      -0.1822863562565699,
      0.17539751304060966,
      0.22389875316537436,
      0.17959284318436494,
      0.07388476439235148,
      0.05629967843539386,
      0.07100650587406765,
      0.12565175743132706,
      -0.5816325531375245,
      -0.01500739587426286,
      0.196106411208677,
      0.0826116422833057,
      0.11124236205484275,
      0.08155103090976318,
      0.053339226007901454,
      0.03490478957346218,
      0.019367689058645443,
      0.00679706109220573,
      0.0043447821986350495,
      -0.03567050769822351,
      -0.09427419146387112,
      -0.06130222513084613,
      -0.09169538676627209,
      -0.15744155418815622,
      -0.15800334324798876,
      -0.1489735657652089,
      0.1324366750203345,
      0.14229906194915942,
      0.15847290888358587,
      0.23801320706329618,
      0.3645685665325719,
      0.42996262597569923,
      0.19223377628463265,
      -0.05398891167084463,
      -0.01916968023706796,
      -0.027742660118419353,
      0.23003468921975506,
      0.19624496015824214,
      0.1996085662763617,
      -0.37201966328942254,
      -0.8754045196400824,
      -0.9231011993444704,
      -0.6742902721550847,
      -1.071301785192537,
      -2.511051953918876,
      -2.8010975017670803,
      -4.201631445410185,
      -1.1767984066206405,
      -0.7106444863976968,
      -0.8745277643570187,
      -1.129259174562913,
      -1.6318958938691286,
      -1.4175319751258764,
      -1.7498915335208642,
      -2.9199704125183357,
      1.8350073226448278,
      -1.1932538997179054,
      -1.8944912760984185,
      -0.2314291867673726,
      -0.10371860508223454,
      0.5518126791959268,
      0.30892724027130397,
      0.21788933818490744,
      0.20116786041696313,
      -0.0846412117329869,
      -0.4692167426884792,
      0.17013062543556992,
      -0.10833117239473111,
      -0.019250950230285103,
      -0.04780395722875995,
      -0.6462831586038225,
      0.37118077191636867,
      0.021890336598857724,
      0.02851782923178054,
      0.24472870532008242,
      0.10999532339458083,
      0.1442730326859729,
      0.18404299796465387,
      -0.11223489586948883,
      -0.16864255869113376,
      -0.1731094580651368,
      -0.1908928946649325,
      -0.15441420925117877,
      -0.1528438989134205,
      -0.14981264038253164,
      0.028303151078382344,
      0.24503535569896776,
      0.027671363415170295,
      -0.14548846673151283,
      0.0624355507005907,
      0.04209832811700763,
      -0.19219530810517912,
      0.10629057841679947,
      -0.2039318452919269,
      -0.1766383533408463,
      -0.20556154011077604,
      -0.2738736183071796,
      -0.2237432928969753,
      -0.18352027506453314,
      -0.15946816353038418,
      -0.1650265271798338,
      -0.08377212507299264,
      -0.0942257879691023,
      -0.03199784811394912,
      0.08979084538801117,
      0.18457312843490573,
      0.38919433482537036,
      0.3032564067372433,
      0.1745685152975237,
      0.20439628023910975,
      0.18425282727024328,
      0.13269166585979866,
      0.11069610496609274,
      0.05934179010579009,
      -0.1730180641613949,
      -0.1981220841077654,
      -0.14899948915561453,
      -0.12871982556472678,
      -0.1720308163721082,
      -0.12229089717485044,
      -0.15172291567955515,
      -0.17859384278991372,
      -0.25852460559268864,
      0.10276197382826477,
      0.12113303186934338,
      0.12492834505701544,
      0.14047187792202362,
      0.1330254578099808,
      0.14313333130597083,
      0.1574261778098306,
      -0.0907639098182174,
      -0.10974291680080818,
      -0.1646750038064932,
      -0.13362302447868443,
      -0.12077387586338363,
      -0.10646093447658786,
      -0.06493667522896052,
      -0.1047143637108978,
      -0.0985056253029169,
      0.09869679066516308,
      -0.26414529633726935,
      -0.251716785224626,
      -0.14568500230050202,
      -0.1853521059566952,
      0.1813796505210015,
      0.10513439818625651,
      0.1749646864091955,
      0.045636872822688405,
      -0.1270244757905182,
      0.04332276226785544,
      -0.08117985623910982,
      0.16681466355635394,
      0.1274095298645214,
      0.11948977799796714,
      0.24808866668278715,
      0.10810490452591591,
      0.12941656549162792,
      0.12604812899773107,
      -0.1188877722558957,
      0.1543777557705151,
      -0.16994756835733674,
      -0.17375524793027589
    ]
  },
  "uncertainty": {
    "r2_cv": 0.9025925030480391,
    "rmse_cv": 0.001027310373365411,
    "bootstrap": null
  }
}