{
  "concentrations": [
    0.5,
    1.0,
    5.0,
    10.0
  ],
  "transformed_concentrations": [
    0.5,
    1.0,
    5.0,
    10.0
  ],
  "transform_meta": {},
  "peak_wavelengths": [
    0.24010291332613315,
    0.24001467349348188,
    0.244202311371608,
    0.246998598693015
  ],
  "selected_model": "robust_huber",
  "slope": 0.0007555199324121271,
  "intercept": 0.239595007382093,
  "r2": 0.9757063963360683,
  "rmse": 0.000458565705571465,
  "slope_se": NaN,
  "slope_ci_low": NaN,
  "slope_ci_high": NaN,
  "lod": 1.8208614461331891,
  "loq": 6.069538153777297,
  "roi_center": 0.2421526123488706,
  "linear_model": {
    "model": "linear",
    "x_transform": "linear",
    "slope": 0.000762618677503872,
    "intercept": 0.23968382217635603,
    "r2": 0.9774023508567194,
    "rmse": 0.0004422697461174075,
    "slope_se": 8.199500198663723e-05,
    "slope_ci_low": 0.0004098226583846267,
    "slope_ci_high": 0.0011154146966231172,
    "predictions": [
      0.24006513151510797,
      0.2404464408538599,
      0.2434969155638754,
      0.24731000895139474
    ],
    "r2_cv": 0.8436032046917055,
    "rmse_cv": 0.001163508408602507
  },
  "polynomial_model": null,
  "robust_model": {
    "model": "robust_huber",
    "slope": 0.0007555199324121271,
    "intercept": 0.239595007382093,
    "r2": 0.9757063963360683,
    "rmse": 0.000458565705571465,
    "epsilon": 1.35,
    "alpha": 0.0001,
    "predictions": [
      0.23997276734829906,
      0.24035052731450512,
      0.24337260704415364,
      0.24715020670621426
    ],
    "r2_cv": 0.8498630064547349,
    "rmse_cv": 0.0011399858451022304
  },
  "bootstrap": null,
  "feature_candidates": [
    {
      "type": "centroid",
      "r2": 0.7614932819567419,
      "slope": 28.104221560841772,
      "intercept": 593.4178861090945
    },
    {
      "type": "xcorr",
      "r2": 0.7842077990065117,
      "slope": -8.09252130115127,
      "intercept": 549.0899569832252
    },
    {
      "type": "gaussian",
      "r2": 0.7615663113674106,
      "slope": 28.11162765334319,
      "intercept": 593.404620137183
    },
    {
      "type": "intensity_best",
      "r2": 0.9774023508567194,
      "slope": 0.000762618677503872,
      "intercept": 0.23968382217635603
    },
    {
      "type": "peak",
      "r2": 0.0,
      "slope": 0.0,
      "intercept": 507.54746877
    },
    {
      "type": "peak",
      "r2": 0.0,
      "slope": 0.0,
      "intercept": 532.19406372
    },
    {
      "type": "peak",
      "r2": 0.0,
      "slope": 0.0,
      "intercept": 551.12030936
    },
    {
      "type": "peak",
      "r2": 0.0,
      "slope": 0.0,
      "intercept": 566.05326338
    }
  ],
  "plsr_model": {
    "model": "plsr",
    "n_components": 1,
    "wavelengths": [
      500.40751877,
      501.74521749,
      501.96821414,
      502.19122417,
      502.41424757,
      502.63728434,
      503.08339798,
      503.30647484,
      504.42205943,
      504.64521638,
      504.86838666,
      506.87751863,
      507.54746877,
      507.77081206,
      510.45196655,
      511.12255328,
      516.04382041,
      516.49152443,
      519.17885115,
      519.40288024,
      519.62692243,
      521.64389057,
      521.86806346,
      522.0922494,
      528.15018924,
      528.37473908,
      528.59930187,
      531.51979425,
      531.74453785,
      535.34218572,
      538.49282213,
      539.16828466,
      539.39346438,
      541.19536122,
      541.42065566,
      541.64596283,
      541.87128272,
      542.77268948,
      542.99807295,
      545.25260568,
      545.47812868,
      545.70366434,
      545.92921266,
      546.15477363,
      546.38034726,
      547.95971657,
      556.54419485,
      556.77034646,
      556.99651054,
      559.71145146,
      559.93777742,
      560.1641158,
      560.39046661,
      566.96002731,
      571.04289932,
      573.99410892,
      574.67545032,
      574.9025885,
      575.12973886,
      575.58407612,
      576.03846206,
      576.26567328,
      576.49289666,
      576.7201322,
      576.94737989,
      577.17463973,
      577.85649211,
      579.2205244,
      579.44790553,
      579.67529877,
      579.90270412,
      580.13012157,
      581.72238223,
      581.94989635,
      582.63251112,
      582.8600735,
      583.08764793,
      589.46461072,
      589.6925331,
      589.92046742,
      590.14841368,
      592.65660944,
      592.88469868,
      593.11279981,
      595.85093954,
      596.07919492,
      596.30746214,
      596.5357412,
      601.1038021,
      605.90532743,
      608.19358067,
      610.4829983,
      610.71200396,
      611.85720624,
      612.08628146,
      612.31536827,
      612.54446665,
      612.77357661,
      613.00269813,
      613.23183122,
      613.46097588,
      613.6901321,
      613.91929986,
      614.14847919,
      614.37767005,
      614.83608642,
      615.06531191,
      615.29454894,
      615.52379749,
      615.75305757,
      616.44090692,
      616.67021306,
      617.81691632,
      623.3250819,
      623.55473166,
      623.78439281,
      624.01406536,
      624.24374929,
      624.47344461,
      633.44040333,
      633.67055104,
      633.90070999,
      634.13088016,
      634.36106156,
      635.74238551,
      639.19745779,
      640.11923445,
      641.73277198,
      641.96332179,
      642.1938827,
      642.42445471,
      642.65503781,
      645.88436404,
      646.1151131,
      646.34587321,
      646.8074265,
      658.59185253,
      658.82320303,
      659.05456435,
      659.98011792,
      660.21153335,
      661.60025282,
      661.83174384,
      662.06324565,
      662.29475824,
      662.5262816,
      662.75781573,
      662.98936064,
      670.63635974,
      670.8682686,
      671.10018809,
      671.33211822,
      673.6520037,
      675.27655419,
      678.29494962,
      680.15330807,
      680.38565013,
      680.61800268,
      680.85036571,
      681.08273922,
      681.31512321,
      681.54751768,
      681.77992262,
      684.56959716,
      684.80213787,
      685.034689,
      685.26725054,
      685.49982249,
      690.61903197,
      692.94759991,
      698.77351317,
      699.00668264,
      709.50980288,
      709.74343742,
      714.18439392,
      724.95101379,
      725.18530196,
      725.4195999,
      725.65390763,
      725.88822512,
      730.34210937,
      730.57662153,
      730.8111434,
      731.74932772,
      734.33013221,
      734.56480869,
      734.7994948,
      735.03419054,
      735.2688959,
      740.66976721,
      747.48674617,
      747.95717599,
      748.19240503,
      748.42764349,
      748.66289136,
      748.89814864,
      749.13341533,
      750.07457609,
      759.73009279,
      759.96578822,
      763.26649196,
      763.73816821,
      763.9740201,
      766.56899533,
      768.45694422,
      768.69297882,
      771.28995904,
      771.52610256,
      774.12427796,
      774.36052987,
      774.59679079,
      777.90538746,
      778.14178306,
      778.37818761,
      778.6146011,
      778.85102354,
      779.08745492,
      779.32389523,
      779.56034447,
      779.79680263,
      780.03326972,
      780.26974574,
      780.50623066,
      780.7427245,
      780.97922725,
      781.2157389,
      781.45225946,
      781.68878891,
      781.92532726,
      782.16187449,
      782.39843061,
      782.63499562,
      782.8715695,
      783.10815226,
      783.3447439,
      783.5813444,
      783.81795376,
      784.05457199,
      784.29119907,
      784.527835,
      784.76447979,
      785.00113342,
      785.23779589,
      785.4744672,
      785.71114735,
      785.94783633,
      786.18453413,
      787.36815544,
      787.60490613,
      787.84166563,
      788.07843392,
      788.31521101,
      788.55199688,
      794.71150307,
      794.9485249,
      795.18555541,
      796.13376427,
      796.37083816,
      797.08211182,
      797.31922035,
      800.40241711,
      800.63964641,
      803.24973542,
      803.48706766,
      803.72440845,
      803.9617578,
      804.19911569,
      804.43648213,
      804.6738571,
      805.14863266,
      805.38603323,
      805.62344232,
      805.86085994,
      806.09828608,
      806.33572073,
      806.57316388,
      806.81061555,
      807.04807572,
      807.28554438,
      807.52302155,
      807.7605072,
      810.84859175,
      811.0861959,
      811.32380849,
      815.12675415,
      815.36450959,
      817.98037097,
      821.07314248,
      822.02504642,
      822.97708262,
      823.21511231,
      823.45315024,
      823.69119643,
      823.92925085,
      824.16731351,
      824.4053844,
      824.64346352,
      826.31024748,
      828.93029074,
      831.31300511,
      831.55132128,
      831.78964557,
      832.02797798,
      836.0808669,
      836.31934474,
      841.3292322,
      841.56788618,
      843.71612994,
      843.95486339,
      847.29796238,
      847.53681435,
      849.92576635,
      851.59849913,
      853.27161453,
      853.51066218,
      853.74971761,
      854.70601703,
      854.9451113,
      856.61898816,
      856.85814438,
      857.09730833,
      860.44641292,
      861.16427418,
      866.90963803,
      870.02353456,
      875.53584616,
      875.77560148,
      876.01536424,
      877.45409673,
      878.17356306,
      880.33236121,
      880.57226455,
      880.81217525,
      882.01183905,
      886.09206581,
      886.33214482,
      889.4538325,
      889.694013,
      892.33647437,
      892.57674129,
      892.81701539,
      899.30711569,
      899.54758927,
      899.78806991
    ],
    "concentrations": [
      0.5,
      1.0,
      5.0,
      10.0
    ],
    "predictions_in": [
      -0.11598472646407387,
      1.3176632377300406,
      6.819323206299507,
      8.478998282434528
    ],
    "r2_in": 0.8951023798984458,
    "rmse_in": 1.235286431324653,
    "predictions_cv": [
      0.4034308335546566,
      2.691584841404072,
      9.250071824292904,
      5.072192126737083
    ],
    "r2_cv": 0.28322081230167806,
    "rmse_cv": 3.229070647423036,
    "coef_": [
      0.06651522483089045,
      -0.040921417205153646,
      0.04346265382077633,
      -0.12500883755593184,
      -0.1185553895648463,
      -0.05916853167688113,
      -0.044886878337134346,
      -0.05270627369903198,
      0.11044257210454622,
      0.19368066677302143,
      0.059003459630330934,
      0.041257758210649566,
      0.06451547091290892,
      -0.0956610093424172,
      -0.055660100718706154,
      0.055119050206765885,
      -0.06169534784190951,
      -0.0688631336663281,
      0.06232629434197255,
      -0.08046885109187225,
      -0.0452985008885504,
      -0.04716769315744667,
      -0.045728270821658625,
      0.05397892977648558,
      0.10738581021799559,
      0.07261381281818938,
      0.05198344095824687,
      -0.042899242547640125,
      -0.04371755283733695,
      0.04646924728540065,
      0.05855007017953298,
      -0.07959959939500849,
      -0.04872847112148843,
      -0.07054852381672924,
      0.06172667263699256,
      0.06540036295391119,
      0.0562153516674087,
      0.049090506727824376,
      0.054156343899145275,
      -0.044670754398115436,
      0.06297558300976418,
      0.054664925242032536,
      0.0544830922359589,
      0.1786110936627448,
      0.09689259764997422,
      -0.043285378391072035,
      -0.040469895413646255,
      -0.04621306584716974,
      -0.043973512958560855,
      -0.05367046979580188,
      0.0943491475869952,
      0.07423784551095353,
      0.04554746416050999,
      0.04205651210856677,
      0.09141728521899276,
      -0.07298738412239664,
      -0.04783810555449262,
      -0.04771493854680668,
      -0.04784455540154267,
      -0.053069724884178326,
      0.04299688750628287,
      0.10443250078533196,
      0.12154232003577654,
      0.07609023412640721,
      0.050551885874042135,
      0.04273441322445589,
      -0.0619732692113696,
      0.05752834168943133,
      0.043625131093319114,
      0.05027354250131678,
      0.1888158803411325,
      0.04251025922086959,
      -0.06339570291291946,
      -0.06449287940821025,
      -0.049030322651628384,
      -0.08989248421374657,
      -0.04121723211768055,
      0.050438511077607516,
      0.05616644635462964,
      0.06341760340578176,
      0.042212341967821684,
      -0.04049255627098164,
      0.09182856218250063,
      0.06942229649502439,
      0.049610883521954134,
      0.04078595291234276,
      0.04359478233794399,
      0.04672097007299294,
      0.06724951660826411,
      -0.048621192937932406,
      -0.07636737759187759,
      0.10461559351837817,
      0.04929751469356214,
      0.06517667258340529,
      0.04883528603504773,
      0.08461613920813019,
      -0.177912419208464,
      0.11977021150700969,
      0.0575325281043777,
      0.04926935597513529,
      0.0448033784356164,
      0.04577490626915622,
      0.05654949316213945,
      0.0749566622493171,
      0.041715622845262715,
      -0.29687479443305353,
      -0.05645887704068527,
      0.12703351965972376,
      -0.09695473330068077,
      -0.045689710932614015,
      -0.060471436262809576,
      -0.046245665730419085,
      0.059088887360823995,
      0.1696186251469062,
      0.08673501966807191,
      0.05493916546711804,
      0.04832332182936134,
      0.07368970414132867,
      0.04314725223974212,
      0.056604782519386485,
      0.0710876718578067,
      -0.10018210635422568,
      -0.06649564969450351,
      -0.08700762218895693,
      0.055965260087499205,
      -0.09047234040433329,
      0.04826277653476474,
      0.04055822409206457,
      0.06845393463554728,
      0.08922450003427547,
      0.045917486884643165,
      0.14492796598213584,
      0.05559111910483352,
      0.10066858627976608,
      0.048673587185037906,
      0.04609170684173648,
      -0.06973603880029759,
      -0.056967245813014884,
      -0.07838400023421976,
      0.10588003572012562,
      0.047083241100936146,
      0.04074602258162865,
      0.060293818096026505,
      0.10288849769945191,
      0.09408903016453561,
      -0.1866332729314149,
      -0.07693922981351904,
      -0.043974801334922466,
      0.042929609583190004,
      0.05840760287011977,
      0.062206089833427576,
      -0.060806616369490675,
      -0.041870037340730415,
      0.05916646049579036,
      0.05794482578627102,
      0.04798707351939217,
      0.04776222659571112,
      0.07491364047036643,
      -0.07176444902769924,
      -0.06220845890916151,
      -0.057455306708128866,
      -0.09442594037452971,
      -0.11309869963385238,
      0.041987719770699164,
      0.06821389061312515,
      0.15539654150341495,
      0.09457996156298995,
      0.06804583424643351,
      -0.054027719904546995,
      -0.04744921210000391,
      0.04128304204592585,
      0.06295790509308033,
      -0.0821501028001633,
      -0.05580371859311892,
      0.05754065361006331,
      0.04441645096111287,
      0.049866012769385716,
      0.07648161532064646,
      -0.08439166144026355,
      -0.07864335097919474,
      0.05204983964524231,
      0.13153143491803812,
      -0.056217616031622925,
      0.06840038867905798,
      -0.05899225456923876,
      -0.08619255474028133,
      -0.07737022146057866,
      -0.10540137337759178,
      -0.1695218269755933,
      0.04062662948879574,
      -0.044019640800170644,
      -0.041478969361279226,
      -0.0487603825344868,
      -0.04613535316031542,
      -0.04300039628863514,
      -0.05724445062612797,
      -0.05249810360985162,
      -0.08537725379373919,
      0.043637571760336814,
      0.06498559762024815,
      0.056100471729057556,
      -0.0909403859732818,
      -0.08072090970995552,
      -0.04851514478782288,
      0.06619198453176993,
      0.07999055049926423,
      -0.07011751932172393,
      -0.12816658962712646,
      0.058475847886302945,
      0.08250426451449498,
      0.06733582134649105,
      -0.07195182051617113,
      -0.08626663446351814,
      -0.08582052391444824,
      -0.106472215432496,
      0.32774736622962025,
      0.14821982037387516,
      0.08542921985681988,
      0.07566918291991993,
      0.0748347558626793,
      0.07380043818349283,
      0.056263600478676595,
      0.07926513830473775,
      0.0768398768064907,
      0.04926862249984505,
      0.06483795397777135,
      -0.1986640286403588,
      0.9855885677599112,
      0.14151318610959493,
      0.10240537403188338,
      0.6351171050673989,
      -0.09295556014489002,
      0.23643666137003272,
      0.18964610568723322,
      -0.7493245455934829,
      -0.18522863127233452,
      -0.4307465388948854,
      -0.13922749257244668,
      -0.06389252337405242,
      -0.05084165025087596,
      -0.06209964627616459,
      -0.08251362041265829,
      -0.0892911275061472,
      -0.19383133028440772,
      -0.1880172389431254,
      -0.0644832559501185,
      -0.04201280895411309,
      -0.07432901213980458,
      -0.1352604572800595,
      -0.09169544754889368,
      -0.07794962527368603,
      0.07664104588807355,
      0.07599695012830546,
      0.08123766636602844,
      -0.13659138020781092,
      -0.043909564092589566,
      -0.07896998648212009,
      0.04254812501100382,
      0.0457918789032443,
      0.04113560039696227,
      -0.05317472520227656,
      0.14461909407408727,
      -0.12005463468711294,
      -0.16074611195713737,
      -0.12231878979958573,
      -0.10623323906766494,
      -0.28441018457230627,
      -0.0999765612999126,
      -0.0541308059870879,
      0.24534521233265286,
      0.16617424976900508,
      0.09764978002120307,
      0.05864195512317719,
      0.07221309406558485,
      0.06602890166933452,
      0.04460848149143916,
      0.048269869032865155,
      0.0790174868431081,
      -0.0711979588505677,
      -0.05472546252843493,
      -0.044690980152555744,
      -0.044726603191092125,
      -0.0738963303699738,
      -0.08266028501398764,
      -0.042071434722012,
      -0.046711451661924835,
      0.051510448607703076,
      -0.0937029710740325,
      0.04783168368212911,
      0.0453358558488351,
      0.05550314322903336,
      0.08239567089864674,
      0.14778161693303515,
      -0.29396468472398174,
      -0.12630807315124815,
      -0.07626705334371747,
      -0.047372967787657705,
      0.04195889872569144,
      0.07365015786270442,
      -0.06126207292839684,
      -0.06888514253157309,
      0.07764656429549932,
      0.052022156154972875,
      0.04377407935037671,
      -0.08682731660673866,
      0.10229114396134166,
      -0.04938328648350375,
      -0.051953386347887806,
      -0.05458626255007647,
      -0.04557401155168694,
      -0.0425647616738418,
      0.05013474301897574,
      -0.058211725640378034,
      0.06971471579526994,
      0.288578010079081,
      -0.053383833716473456,
      -0.041665899767788034,
      -0.04519663618199891,
      0.09630604114258787,
      0.08946157057073673,
      0.13556412321066777,
      0.05083023439791532,
      -0.046637763417299645,
      0.054351881098071216,
      -0.05429338550197089,
      0.0668421009330113,
      -0.07399914379418097,
      -0.05660717442083392,
      -0.08874050409543763,
      0.060042747112249405,
      -0.0618617243362415,
      -0.048858586689183824,
      -0.0894670660850955,
      0.04557989315898594,
      0.04155758227401665,
      -0.04412287803119464,
      0.08750565551435553,
      0.04917802725575373,
      -0.1470879358397229,
      -0.09315612967636729,
      0.04156148121812623,
      0.04782806690091601,
      0.12323971168322286,
      -0.06710634910547819
    ]
  },
  "uncertainty": {
    "r2_cv": 0.8498630064547349,
    "rmse_cv": 0.0011399858451022304,
    "bootstrap": null
  }
}