{
  "concentrations": [
    0.1,
    0.5,
    1.0,
    5.0,
    10.0
  ],
  "transformed_concentrations": [
    0.1,
    0.5,
    1.0,
    5.0,
    10.0
  ],
  "transform_meta": {},
  "peak_wavelengths": [
    0.11976065790364718,
    0.12194657861016046,
    0.12141337604429095,
    0.12740939399361434,
    0.13147512623694219
  ],
  "selected_model": "linear",
  "slope": 0.0011399325718065788,
  "intercept": 0.12061645041933318,
  "r2": 0.9673188738325394,
  "rmse": 0.0007903859019158309,
  "slope_se": 0.00012097126212098075,
  "slope_ci_low": 0.0007549480256240895,
  "slope_ci_high": 0.0015249171179890682,
  "lod": 2.0800859317403777,
  "loq": 6.933619772467926,
  "roi_center": 0.12194657861016046,
  "linear_model": {
    "model": "linear",
    "x_transform": "linear",
    "slope": 0.0011399325718065788,
    "intercept": 0.12061645041933318,
    "r2": 0.9673188738325394,
    "rmse": 0.0007903859019158309,
    "slope_se": 0.00012097126212098075,
    "slope_ci_low": 0.0007549480256240895,
    "slope_ci_high": 0.0015249171179890682,
    "predictions": [
      0.12073044367651384,
      0.12118641670523647,
      0.12175638299113976,
      0.12631611327836606,
      0.13201577613739895
    ],
    "r2_cv": 0.8378748469568154,
    "rmse_cv": 0.001760418313675118
  },
  "polynomial_model": null,
  "robust_model": {
    "model": "robust_huber",
    "slope": 0.0011383481691394314,
    "intercept": 0.12060828539643288,
    "r2": 0.9673075761829353,
    "rmse": 0.0007905225057057699,
    "epsilon": 1.35,
    "alpha": 0.0001,
    "predictions": [
      0.12072212021334683,
      0.1211774594810026,
      0.12174663356557232,
      0.12630002624213005,
      0.1319917670878272
    ],
    "r2_cv": 0.8101683260015614,
    "rmse_cv": 0.0019049124362708458
  },
  "bootstrap": null,
  "feature_candidates": [
    {
      "type": "centroid",
      "r2": 0.45513394612724756,
      "slope": -0.038392200881474034,
      "intercept": 865.8466403903717
    },
    {
      "type": "xcorr",
      "r2": 8.870083827750738e-33,
      "slope": -2.838426824880236e-30,
      "intercept": 865.7223834476024
    },
    {
      "type": "gaussian",
      "r2": 0.47057299582150613,
      "slope": -0.040869697880409624,
      "intercept": 865.847747767536
    },
    {
      "type": "intensity_best",
      "r2": 0.9673188738325394,
      "slope": 0.0011399325718065788,
      "intercept": 0.12061645041933318
    },
    {
      "type": "peak",
      "r2": 0.0,
      "slope": 0.0,
      "intercept": 507.69166384
    },
    {
      "type": "peak",
      "r2": 0.0,
      "slope": 0.0,
      "intercept": 532.01152163
    },
    {
      "type": "peak",
      "r2": 0.0,
      "slope": 0.0,
      "intercept": 552.39562937
    },
    {
      "type": "peak",
      "r2": 0.0,
      "slope": 0.0,
      "intercept": 564.67648712
    }
  ],
  "plsr_model": {
    "model": "plsr",
    "n_components": 1,
    "wavelengths": [
      520.05735353,
      520.28255873,
      520.50777726,
      520.7330091,
      520.95825426,
      521.18351273,
      521.40878452,
      521.63406961,
      521.85936801,
      522.08467971,
      522.31000471,
      522.535343,
      522.76069459,
      522.98605947,
      523.21143764,
      523.4368291,
      523.66223383,
      523.88765185,
      524.33852772,
      525.01494104,
      525.46594959,
      525.69147374,
      525.91701116,
      526.14256182,
      526.36812574,
      526.5937029,
      526.81929331,
      527.04489696,
      527.27051384,
      527.49614396,
      527.72178732,
      527.9474439,
      528.62449301,
      529.30166109,
      529.52741021,
      529.75317254,
      529.97894807,
      555.80321599,
      556.03049162,
      556.25778014,
      556.48508154,
      556.71239582,
      556.93972297,
      557.167063,
      557.39441589,
      557.62178165,
      557.84916028,
      558.07655177,
      558.30395611,
      558.53137331,
      558.75880337,
      558.98624627,
      559.21370202,
      559.44117062,
      559.66865206,
      559.89614634,
      560.12365345,
      560.3511734,
      560.57870618,
      560.80625179,
      561.03381022,
      561.26138148,
      561.48896555,
      561.71656244,
      561.94417215,
      562.17179467,
      562.39942999,
      562.62707812,
      562.85473906,
      563.08241279,
      563.31009933,
      563.53779866,
      563.76551078,
      563.99323568,
      564.22097338,
      564.44872386,
      564.67648712,
      564.90426316,
      565.13205197,
      565.35985356,
      565.58766792,
      565.81549504,
      566.04333493,
      566.27118758,
      566.49905298,
      566.72693115,
      566.95482207,
      577.90852953,
      578.13704196,
      591.8707725,
      592.32933863,
      592.55864036,
      592.78795453,
      593.01728114,
      593.24662018,
      593.47597165,
      593.70533555,
      593.93471188,
      594.16410063,
      594.3935018,
      594.62291539,
      594.8523414,
      595.08177981,
      595.31123064,
      595.54069387,
      595.77016951,
      595.99965755,
      596.22915798,
      596.45867081,
      596.68819604,
      597.6064208,
      597.83600795,
      598.29521936,
      598.52484363,
      598.75448026,
      598.98412926,
      600.59201824,
      601.51108354,
      614.85961314,
      616.70401496,
      616.93461988,
      617.16523695,
      617.39586617,
      617.62650752,
      618.54919429,
      619.93358818,
      620.16436289,
      620.62594864,
      620.85675967,
      621.0875828,
      621.31841802,
      622.93460305,
      637.04343871,
      637.27510187,
      637.50677692,
      637.97016272,
      638.20187347,
      638.66533062,
      638.89707703,
      639.12883532,
      639.36060549,
      639.59238754,
      639.82418146,
      640.05598725,
      640.28780491,
      640.51963444,
      640.75147583,
      640.98332908,
      641.21519419,
      641.44707115,
      641.67895997,
      641.91086063,
      642.14277314,
      642.3746975,
      642.60663369,
      642.83858172,
      643.07054159,
      643.30251329,
      643.53449683,
      644.23051837,
      644.46254919,
      644.69459183,
      644.92664628,
      645.15871254,
      645.39079061,
      645.62288049,
      645.85498217,
      646.08709564,
      647.24783991,
      647.48002413,
      647.71222012,
      648.40887875,
      648.64112184,
      648.87337669,
      649.10564331,
      649.57021181,
      649.8025137,
      650.03482734,
      650.26715273,
      650.49948987,
      650.73183875,
      650.96419937,
      651.19657173,
      651.42895582,
      651.66135165,
      651.89375921,
      652.12617849,
      652.3586095,
      652.59105224,
      652.82350669,
      653.05597285,
      653.28845073,
      653.52094032,
      653.75344162,
      653.98595462,
      654.21847933,
      654.45101573,
      654.68356383,
      654.91612363,
      655.14869511,
      655.38127829,
      655.61387315,
      655.84647969,
      656.07909792,
      656.31172782,
      657.00968756,
      659.56977099,
      659.80257572,
      663.0630621,
      663.29604103,
      663.52903155,
      663.76203367,
      663.99504736,
      664.22807264,
      664.4611095,
      664.69415794,
      664.92721795,
      665.16028953,
      665.39337269,
      665.6264674,
      665.85957369,
      666.09269153,
      666.32582093,
      666.55896189,
      666.7921144,
      667.02527846,
      667.25845406,
      667.49164121,
      667.72483991,
      667.95805014,
      668.1912719,
      668.4245052,
      668.65775003,
      668.89100639,
      669.12427427,
      669.35755368,
      669.5908446,
      669.82414704,
      670.05746099,
      670.29078646,
      670.52412343,
      670.75747191,
      670.99083189,
      671.22420337,
      671.45758635,
      671.69098082,
      671.92438678,
      672.15780424,
      672.39123317,
      672.6246736,
      672.8581255,
      673.09158888,
      673.32506373,
      673.55855006,
      673.79204785,
      674.02555712,
      674.25907784,
      674.49261003,
      674.72615367,
      674.95970878,
      697.66856647,
      697.90323075,
      698.60729068,
      698.84199967,
      701.65937804,
      701.89423202,
      704.94834598,
      705.41837629,
      705.65340808,
      708.00433546,
      708.23948909,
      708.47465377,
      708.70982951,
      708.9450163,
      709.18021414,
      709.41542303,
      709.65064297,
      709.88587395,
      710.12111597,
      710.35636902,
      710.59163311,
      710.82690823,
      711.06219437,
      711.29749155,
      711.53279974,
      711.76811896,
      712.0034492,
      712.23879044,
      712.4741427,
      712.70950597,
      712.94488025,
      713.18026553,
      713.41566181,
      713.65106908,
      714.35735688,
      714.59280812,
      714.82827034,
      715.06374355,
      715.29922774,
      715.5347229,
      715.77022903,
      716.24127421,
      716.47681324,
      728.03159998,
      728.26768372,
      730.86531851,
      731.10153194,
      733.93693392,
      734.1732874,
      734.40965164,
      734.64602662,
      734.88241236,
      735.11880884,
      735.35521607,
      735.59163403,
      735.82806273,
      736.06450217,
      736.30095234,
      736.53741323,
      736.77388486,
      737.0103672,
      737.24686027,
      737.71987856,
      737.95640377,
      738.19293969,
      738.66604365,
      738.90261169,
      739.13919042,
      739.37577985,
      739.61237997,
      739.84899078,
      740.08561228,
      740.32224446,
      740.55888732,
      740.79554087,
      742.45241446,
      742.92590286,
      743.16266304,
      743.39943387,
      743.63621535,
      825.70178493,
      825.94207369
    ],
    "concentrations": [
      0.1,
      0.5,
      1.0,
      5.0,
      10.0
    ],
    "predictions_in": [
      2.826257125292782,
      -0.6903084828357242,
      2.067507614973378,
      2.883318373391892,
      9.513225369177675
    ],
    "r2_in": 0.7933016338452373,
    "rmse_in": 1.7150029361595305,
    "predictions_cv": [
      3.7416083772500115,
      1.5218160072364078,
      3.5654362313240786,
      1.8136284919965322,
      0.4665331864320661
    ],
    "r2_cv": -0.4429631821019533,
    "rmse_cv": 4.531312050172439,
    "coef_": [
      0.3364432626866062,
      0.3352601160307766,
      0.21837878901657573,
      0.1749001030237597,
      1.0062763171467233,
      0.5816303974812134,
      0.3408001254559164,
      0.25298752770496197,
      0.2854743560140116,
      0.33642402155209017,
      0.5575408336221395,
      0.7958898048814278,
      0.6817842229667611,
      1.1459094405474712,
      -0.9717556198029557,
      -0.4699241222600304,
      -0.5990810355451319,
      0.403853869733751,
      -0.47968718546696865,
      -0.17294515183025247,
      -0.2407428010479936,
      -0.394442584469307,
      0.5402746747910877,
      -0.5300325264865932,
      -0.4630498612802063,
      -0.9399817877901461,
      0.5668880534661629,
      0.24599126762065543,
      0.21334642987584804,
      0.2824842854157326,
      0.29115463201812586,
      0.2246753734827165,
      0.17460889351913667,
      0.27526872438101646,
      0.3264328229679991,
      0.2761684680896268,
      -0.2708615781723842,
      -0.176555678564705,
      -0.16699858762059097,
      0.48116084064119624,
      0.9105731768446645,
      -1.5696805741045419,
      -3.170033492237568,
      1.5377148081650522,
      1.6588144958123403,
      5.179968377991152,
      5.179968377991152,
      5.179968377991152,
      5.179968377991152,
      5.179968377991152,
      5.179968377991152,
      5.179968377991152,
      5.179968377991152,
      5.179968377991152,
      5.179968377991152,
      5.179968377991152,
      5.179968377991152,
      5.179968377991152,
      5.179968377991152,
      5.179968377991152,
      5.179968377991152,
      5.179968377991152,
      5.179968377991152,
      5.179968377991152,
      5.179968377991152,
      5.179968377991152,
      5.179968377991152,
      5.179968377991152,
      5.179968377991152,
      5.179968377991152,
      5.179968377991152,
      5.179968377991152,
      5.179968377991152,
      5.179968377991152,
      5.179968377991152,
      5.179968377991152,
      5.179968377991152,
      -1.37580721699209,
      -4.088534286281784,
      -2.8032228602035922,
      -1.2422818382957241,
      -0.3894634720167169,
      -0.5488442712015965,
      0.2664188338792173,
      0.271877030174987,
      0.23092526488338136,
      0.18701172476496788,
      0.24685187152655627,
      0.20332324581609412,
      -0.20771909956359083,
      0.4773357356820002,
      0.27948104030082094,
      0.3440279284133389,
      0.7755272697668188,
      1.6736242980156806,
      5.179968377991152,
      5.179968377991152,
      5.179968377991152,
      5.179968377991152,
      5.179968377991152,
      5.179968377991152,
      5.179968377991152,
      5.179968377991152,
      5.179968377991152,
      5.179968377991152,
      5.179968377991152,
      5.179968377991152,
      5.179968377991152,
      5.179968377991152,
      5.179968377991152,
      -1.641085786322093,
      -0.17555816206765848,
      0.277911053717199,
      0.370088301960532,
      0.3469973699138023,
      0.32352984498245446,
      -0.3063720465621908,
      -0.19041004733643546,
      0.41022657116364386,
      -0.2301282015159258,
      -0.269023528499805,
      -0.2673664920374782,
      -0.39195740262672746,
      -0.19861759102793522,
      0.18642800744438145,
      0.16691419815703942,
      0.18624720975127523,
      -0.5003983588501115,
      -0.6089114282168177,
      -0.45557101883892587,
      -0.24057159303256992,
      0.20443717632230493,
      0.18610914734909373,
      0.30108426385210374,
      0.21145072815424415,
      -0.8356140531151407,
      -0.5429808513686172,
      1.1383311240824363,
      5.148804154448143,
      5.179968377991152,
      5.179968377991152,
      5.179968377991152,
      5.179968377991152,
      5.179968377991152,
      5.179968377991152,
      5.179968377991152,
      5.179968377991152,
      5.179968377991152,
      5.179968377991152,
      5.179968377991152,
      5.179968377991152,
      5.179968377991152,
      5.179968377991152,
      -0.17471017511635473,
      0.5147519017767204,
      1.3996054769739261,
      1.743370892123054,
      2.8201666686001365,
      0.17292038660217215,
      0.17589420526397673,
      0.8387261966234427,
      0.7159179707678188,
      -0.16979971235226138,
      -0.24052652955551773,
      -0.3832897556620389,
      -0.7279280756717715,
      -1.3344106989034323,
      -0.6278377838183472,
      0.5413600499894291,
      0.5800893534788748,
      0.2266999934297706,
      0.9972259100457779,
      0.6123173179964815,
      0.5640065433977656,
      0.657895113904793,
      -0.5612783045693857,
      5.179968377991152,
      5.179968377991152,
      -4.0544906344490235,
      2.6795703287868324,
      2.948019386227323,
      3.1074625913025047,
      3.3150473550387387,
      3.5455852547026394,
      3.800493268119577,
      4.079436095670813,
      4.3781894771543755,
      4.684495989924897,
      4.970322062630456,
      5.17843587635108,
      5.202949335689348,
      4.874008265404564,
      3.9862457388816863,
      2.4366446458636575,
      0.4327740392433287,
      -1.5196680556356936,
      -2.9782669337691687,
      -3.8300186132304193,
      -4.201098702267707,
      4.184291820280153,
      3.0157581749110047,
      5.166217840594698,
      -3.6487884411702254,
      -1.3983287109007356,
      -0.26577591823930174,
      0.3596189891305047,
      -0.267974106849431,
      -0.6754575767705313,
      -0.30713275637363563,
      -0.9594211719828569,
      -0.20131774924999468,
      5.179968377991152,
      5.179968377991152,
      5.179968377991152,
      5.179968377991152,
      5.179968377991152,
      5.179968377991152,
      5.179968377991152,
      5.179968377991152,
      5.179968377991152,
      5.179968377991152,
      5.179968377991152,
      5.179968377991152,
      5.179968377991152,
      5.179968377991152,
      5.179968377991152,
      5.179968377991152,
      5.179968377991152,
      5.179968377991152,
      5.179968377991152,
      5.179968377991152,
      5.179968377991152,
      5.179968377991152,
      5.179968377991152,
      5.179968377991152,
      5.179968377991152,
      5.179968377991152,
      5.179968377991152,
      5.179968377991152,
      5.179968377991152,
      5.179968377991152,
      5.179968377991152,
      5.179968377991152,
      5.179968377991152,
      5.179968377991152,
      5.179968377991152,
      5.179968377991152,
      5.179968377991152,
      5.179968377991152,
      5.179968377991152,
      5.179968377991152,
      5.179968377991152,
      5.179968377991152,
      5.179968377991152,
      -4.163610219505041,
      -0.8374263368601217,
      0.19846878839579585,
      -0.7184737952702589,
      -0.6952841964467784,
      -0.35332536892240585,
      -0.29589456304698347,
      -0.17088431364250936,
      0.25281776559091074,
      0.2225845044263851,
      -0.17542605925382918,
      -0.17046796073296328,
      -0.17154377366582993,
      0.28424672413238217,
      0.6373911520579552,
      0.3100239921165262,
      1.5130515472880288,
      -0.3702811101257369,
      -0.2479681611815145,
      -0.4569063873710716,
      5.179968377991152,
      5.179968377991152,
      5.179968377991152,
      5.179968377991152,
      5.179968377991152,
      5.179968377991152,
      5.179968377991152,
      5.179968377991152,
      5.179968377991152,
      5.179968377991152,
      -2.505533941944643,
      -1.2685564599116865,
      -1.2777734005851278,
      1.4810925393365417,
      1.0524711486703358,
      0.8396986556451781,
      0.6250358905862974,
      0.5764588113289685,
      0.5289001556300317,
      0.7977064722816044,
      -0.17055367438773952,
      -0.21188351020664523,
      -0.27413985364259846,
      -0.38858889540279484,
      -0.5246581453155255,
      -0.7663368236865069,
      -0.20453325433593836,
      0.262827514770082,
      1.2113017513553277,
      0.22020472198524232,
      0.17061559986445723,
      0.2600333110638537,
      0.21883217612825326,
      -0.22940642860040344,
      -0.23748099040790474,
      -0.3666942231274242,
      0.3828390309781102,
      0.42424560152618523,
      1.7513251943149832,
      -0.6312441895826644,
      2.311987483393191,
      0.6593272086502283,
      0.7077811683672603,
      0.750657211684085,
      0.898560037061023,
      1.0354283894223149,
      0.6928363063759018,
      0.41290161985492074,
      -0.5673678788624802,
      -0.4678716616465268,
      -0.27095208945502347,
      -1.2127426709394844,
      -0.9584136156010137,
      -1.302360921105338,
      -2.4435439926198903,
      -2.191098594753124,
      -0.45392024111313123,
      -0.2389329306051175,
      -0.5943668540317754,
      0.5391368125340001,
      0.18217450014690556,
      0.3595417637217107,
      0.2982580205614766,
      0.239773653619698,
      0.3524512707620271,
      0.94340837792477,
      -0.22690466352602642,
      -0.28212256176156414
    ]
  },
  "uncertainty": {
    "r2_cv": 0.8378748469568154,
    "rmse_cv": 0.001760418313675118,
    "bootstrap": null
  }
}